Language model created by QuickLM on Tue Apr  5 07:34:13 EDT 2016
Copyright (c) 1996-2010 Carnegie Mellon University and Alexander I. Rudnicky

The model is in standard ARPA format, designed by Doug Paul while he was at MITRE.

The code that was used to produce this language model is available in Open Source.
Please visit http://www.speech.cs.cmu.edu/tools/ for more information

The (fixed) discount mass is 0.5. The backoffs are computed using the ratio method.
This model based on a corpus of 27 sentences and 41 words

\data\
ngram 1=41
ngram 2=68
ngram 3=68

\1-grams:
-0.9596 </s> -0.3010
-0.9596 <s> -0.2505
-2.3909 A -0.2993
-2.0899 ADDRESS -0.2505
-2.3909 AM -0.2993
-2.3909 AND -0.2993
-2.3909 APPEARANCE -0.2505
-2.3909 ASK -0.2957
-2.0899 COMPLIMENT -0.2505
-2.0899 CONDITIONS -0.2505
-2.3909 DEES -0.2903
-2.3909 DESCRIBE -0.2993
-2.3909 FAREWELL -0.2505
-2.3909 HELLO -0.2975
-2.3909 HIDEOUS -0.2505
-2.3909 HIGH -0.2993
-2.3909 I -0.2993
-2.0899 INDOOR -0.2975
-2.3909 INTERESTING -0.2505
-2.0899 IVY -0.2505
-2.3909 JAMES -0.2903
-2.3909 LOW -0.2903
-2.3909 MATTHEWS -0.2903
-1.9138 ME -0.2957
-2.3909 MUSIC -0.2505
-2.3909 MY -0.2993
-1.6128 PLAY -0.2867
-2.3909 QUESTION -0.2505
-2.3909 REFRESH -0.2505
-1.6128 REMOVE -0.2793
-2.3909 SELINAS -0.2903
-1.6128 SHOW -0.2793
-2.3909 SOMETHING -0.2993
-1.6128 SONG -0.2505
-2.3909 STOP -0.2993
-2.3909 TELL -0.2957
-2.3909 TESTING -0.2975
-2.3909 TIGERS -0.2903
-2.0899 TIME -0.2505
-2.0899 TODO -0.2505
-2.0899 WEATHER -0.2505

\2-grams:
-1.7324 <s> AM 0.0000
-1.7324 <s> ASK 0.0000
-1.7324 <s> DESCRIBE 0.0000
-1.7324 <s> FAREWELL 0.0000
-1.7324 <s> HELLO 0.0000
-0.9542 <s> PLAY 0.0000
-1.7324 <s> REFRESH 0.0000
-0.9542 <s> REMOVE 0.0000
-0.9542 <s> SHOW 0.0000
-1.7324 <s> STOP 0.0000
-1.7324 <s> TELL 0.0000
-1.7324 <s> TESTING 0.0000
-0.3010 A QUESTION 0.0000
-0.3010 ADDRESS </s> -0.3010
-0.3010 AM I 0.0000
-0.3010 AND DEES 0.0000
-0.3010 APPEARANCE </s> -0.3010
-0.3010 ASK ME -0.2218
-0.3010 COMPLIMENT </s> -0.3010
-0.3010 CONDITIONS </s> -0.3010
-0.3010 DEES SONG 0.0000
-0.3010 DESCRIBE MY 0.0000
-0.3010 FAREWELL </s> -0.3010
-0.3010 HELLO IVY 0.0000
-0.3010 HIDEOUS </s> -0.3010
-0.3010 HIGH LOW 0.0000
-0.3010 I HIDEOUS 0.0000
-0.3010 INDOOR CONDITIONS 0.0000
-0.3010 INTERESTING </s> -0.3010
-0.3010 IVY </s> -0.3010
-0.3010 JAMES SONG 0.0000
-0.3010 LOW SONG 0.0000
-0.3010 MATTHEWS SONG 0.0000
-0.7782 ME A 0.0000
-0.7782 ME HIGH 0.0000
-0.7782 ME SOMETHING 0.0000
-0.3010 MUSIC </s> -0.3010
-0.3010 MY APPEARANCE 0.0000
-1.0792 PLAY AND 0.0000
-1.0792 PLAY JAMES 0.0000
-1.0792 PLAY MATTHEWS 0.0000
-1.0792 PLAY ME -0.2218
-1.0792 PLAY SELINAS 0.0000
-1.0792 PLAY TIGERS 0.0000
-0.3010 QUESTION </s> -0.3010
-0.3010 REFRESH </s> -0.3010
-1.0792 REMOVE ADDRESS 0.0000
-1.0792 REMOVE COMPLIMENT 0.0000
-1.0792 REMOVE INDOOR 0.0000
-1.0792 REMOVE TIME 0.0000
-1.0792 REMOVE TODO 0.0000
-1.0792 REMOVE WEATHER 0.0000
-0.3010 SELINAS SONG 0.0000
-1.0792 SHOW ADDRESS 0.0000
-1.0792 SHOW COMPLIMENT 0.0000
-1.0792 SHOW INDOOR 0.0000
-1.0792 SHOW TIME 0.0000
-1.0792 SHOW TODO 0.0000
-1.0792 SHOW WEATHER 0.0000
-0.3010 SOMETHING INTERESTING 0.0000
-0.3010 SONG </s> -0.3010
-0.3010 STOP MUSIC 0.0000
-0.3010 TELL ME -0.2218
-0.3010 TESTING IVY 0.0000
-0.3010 TIGERS SONG 0.0000
-0.3010 TIME </s> -0.3010
-0.3010 TODO </s> -0.3010
-0.3010 WEATHER </s> -0.3010

\3-grams:
-0.3010 <s> AM I
-0.3010 <s> ASK ME
-0.3010 <s> DESCRIBE MY
-0.3010 <s> FAREWELL </s>
-0.3010 <s> HELLO IVY
-1.0792 <s> PLAY AND
-1.0792 <s> PLAY JAMES
-1.0792 <s> PLAY MATTHEWS
-1.0792 <s> PLAY ME
-1.0792 <s> PLAY SELINAS
-1.0792 <s> PLAY TIGERS
-0.3010 <s> REFRESH </s>
-1.0792 <s> REMOVE ADDRESS
-1.0792 <s> REMOVE COMPLIMENT
-1.0792 <s> REMOVE INDOOR
-1.0792 <s> REMOVE TIME
-1.0792 <s> REMOVE TODO
-1.0792 <s> REMOVE WEATHER
-1.0792 <s> SHOW ADDRESS
-1.0792 <s> SHOW COMPLIMENT
-1.0792 <s> SHOW INDOOR
-1.0792 <s> SHOW TIME
-1.0792 <s> SHOW TODO
-1.0792 <s> SHOW WEATHER
-0.3010 <s> STOP MUSIC
-0.3010 <s> TELL ME
-0.3010 <s> TESTING IVY
-0.3010 A QUESTION </s>
-0.3010 AM I HIDEOUS
-0.3010 AND DEES SONG
-0.3010 ASK ME A
-0.3010 DEES SONG </s>
-0.3010 DESCRIBE MY APPEARANCE
-0.3010 HELLO IVY </s>
-0.3010 HIGH LOW SONG
-0.3010 I HIDEOUS </s>
-0.3010 INDOOR CONDITIONS </s>
-0.3010 JAMES SONG </s>
-0.3010 LOW SONG </s>
-0.3010 MATTHEWS SONG </s>
-0.3010 ME A QUESTION
-0.3010 ME HIGH LOW
-0.3010 ME SOMETHING INTERESTING
-0.3010 MY APPEARANCE </s>
-0.3010 PLAY AND DEES
-0.3010 PLAY JAMES SONG
-0.3010 PLAY MATTHEWS SONG
-0.3010 PLAY ME HIGH
-0.3010 PLAY SELINAS SONG
-0.3010 PLAY TIGERS SONG
-0.3010 REMOVE ADDRESS </s>
-0.3010 REMOVE COMPLIMENT </s>
-0.3010 REMOVE INDOOR CONDITIONS
-0.3010 REMOVE TIME </s>
-0.3010 REMOVE TODO </s>
-0.3010 REMOVE WEATHER </s>
-0.3010 SELINAS SONG </s>
-0.3010 SHOW ADDRESS </s>
-0.3010 SHOW COMPLIMENT </s>
-0.3010 SHOW INDOOR CONDITIONS
-0.3010 SHOW TIME </s>
-0.3010 SHOW TODO </s>
-0.3010 SHOW WEATHER </s>
-0.3010 SOMETHING INTERESTING </s>
-0.3010 STOP MUSIC </s>
-0.3010 TELL ME SOMETHING
-0.3010 TESTING IVY </s>
-0.3010 TIGERS SONG </s>

\end\
